digraph Tree {
node [shape=box, style="filled", color="black"] ;
0 [label="x2 <= 1.0958\nentropy = 1.0\nsamples = 200\nvalue = [100, 100]", fillcolor="#e5813900"] ;
1 [label="x1 <= 1.4337\nentropy = 0.5436\nsamples = 104\nvalue = [91, 13]", fillcolor="#e58139db"] ;
0 -> 1 [labeldistance=2.5, labelangle=45, headlabel="True"] ;
2 [label="x2 <= 0.1762\nentropy = 0.2145\nsamples = 88\nvalue = [85, 3]", fillcolor="#e58139f6"] ;
1 -> 2 ;
3 [label="entropy = 0.0\nsamples = 57\nvalue = [57, 0]", fillcolor="#e58139ff"] ;
2 -> 3 ;
4 [label="entropy = 0.4587\nsamples = 31\nvalue = [28, 3]", fillcolor="#e58139e4"] ;
2 -> 4 ;
5 [label="x2 <= 0.0102\nentropy = 0.9544\nsamples = 16\nvalue = [6, 10]", fillcolor="#399de566"] ;
1 -> 5 ;
6 [label="entropy = 0.65\nsamples = 6\nvalue = [5, 1]", fillcolor="#e58139cc"] ;
5 -> 6 ;
7 [label="entropy = 0.469\nsamples = 10\nvalue = [1, 9]", fillcolor="#399de5e3"] ;
5 -> 7 ;
8 [label="x2 <= 2.2597\nentropy = 0.4489\nsamples = 96\nvalue = [9, 87]", fillcolor="#399de5e5"] ;
0 -> 8 [labeldistance=2.5, labelangle=-45, headlabel="False"] ;
9 [label="x1 <= 0.1485\nentropy = 0.688\nsamples = 49\nvalue = [9, 40]", fillcolor="#399de5c6"] ;
8 -> 9 ;
10 [label="entropy = 0.9183\nsamples = 6\nvalue = [4, 2]", fillcolor="#e581397f"] ;
9 -> 10 ;
11 [label="entropy = 0.5186\nsamples = 43\nvalue = [5, 38]", fillcolor="#399de5dd"] ;
9 -> 11 ;
12 [label="entropy = 0.0\nsamples = 47\nvalue = [0, 47]", fillcolor="#399de5ff"] ;
8 -> 12 ;
}